{"layers":[{"title":{},"ISBN":{},"sarjat":{},"reprint":{},"years":{},"charsimilarity":{},"size":{},"author":{},"ISSN":{},"F015":{},"ISRN":{},"F010":{}},{"0":{"bias":1.5171257194395016,"weights":{"title":-30.28219327998399,"ISBN":-2.781515255584369,"sarjat":-6.670711408682541,"reprint":-1.2942077321635104,"years":5.5170426034572335,"charsimilarity":4.379079983517452,"size":-7.3890471048011355,"author":-4.14749481340695,"ISSN":-2.640012229658093,"F015":-5.019585684785066,"ISRN":-2.5241113701847167,"F010":0.1603892605966718}},"1":{"bias":-23.246215907491678,"weights":{"title":1.9154745187188764,"ISBN":17.18566909511271,"sarjat":12.293070475040265,"reprint":0.9837285629277277,"years":2.9076336522033737,"charsimilarity":-0.12959403475714393,"size":2.752338147742306,"author":2.0519604601414008,"ISSN":1.666947417032215,"F015":14.536006552988752,"ISRN":9.522788937035234,"F010":1.0588157810279784}},"2":{"bias":-18.869750890200784,"weights":{"title":21.455984542734768,"ISBN":5.793996270610267,"sarjat":-14.677269712927396,"reprint":-3.7993702705056682,"years":22.822119994604638,"charsimilarity":1.2507779923846962,"size":-3.431829266381132,"author":-2.608021654685698,"ISSN":3.3677563441105547,"F015":6.943633449499981,"ISRN":7.8974213376943165,"F010":0.1475349904118132}},"3":{"bias":-29.30077460214361,"weights":{"title":5.139206923923895,"ISBN":8.049888048401161,"sarjat":-6.564393364617638,"reprint":-1.564152363070576,"years":-7.086967539786982,"charsimilarity":2.664083553295677,"size":16.508414558943674,"author":5.966197908141371,"ISSN":6.655752138824041,"F015":1.7460223051707473,"ISRN":9.251322183876807,"F010":4.507670659404312}},"4":{"bias":-19.627390860297503,"weights":{"title":-6.831584618020245,"ISBN":0.6238338094775795,"sarjat":1.247839113198169,"reprint":-3.1388422954233386,"years":25.823884696150618,"charsimilarity":1.7666290240549167,"size":3.2764619013399523,"author":-1.4859267349339143,"ISSN":5.7643181785268975,"F015":11.30611874500769,"ISRN":2.6275114725254447,"F010":1.8247342724186344}},"5":{"bias":-0.28749311243744474,"weights":{"title":-3.8005363054234587,"ISBN":-2.4533696738853332,"sarjat":-4.931984360092717,"reprint":-8.762905914219358,"years":3.0771615655190447,"charsimilarity":3.332590583706308,"size":-13.932804632025363,"author":-0.48956298445574825,"ISSN":3.217570268020314,"F015":3.148990142043021,"ISRN":-5.530526210457907,"F010":0.15623490881876806}}},{"0":{"bias":-0.1256722741402755,"weights":{"0":-4.144594345398439,"1":2.5371702918538293,"2":1.3217169212093438,"3":1.6269833846271795,"4":1.4300603753039753,"5":5.823401392967024}}}],"outputLookup":false,"inputLookup":true}