{"layers":[{"title":{},"author":{},"reprint":{},"years":{},"charsimilarity":{},"size":{},"ISBN":{},"sarjat":{},"F015":{},"ISSN":{},"ISRN":{}},{"0":{"bias":1.0376816951506742,"weights":{"title":-0.8175649517512231,"author":0.6069753868482355,"reprint":-1.8323528922007457,"years":-0.8165280266958855,"charsimilarity":-1.440631290385172,"size":-1.4218350141121898,"ISBN":-1.8599612500328813,"sarjat":-1.2440743434394568,"F015":-0.3757712640252205,"ISSN":-0.4028450962458521,"ISRN":0.19601093537476058}},"1":{"bias":8.80648260008294,"weights":{"title":-4.814406949362568,"author":4.989581062321869,"reprint":3.0126443431293075,"years":-13.368045891838285,"charsimilarity":1.011035729236312,"size":-5.340167783702789,"ISBN":-12.195271373032124,"sarjat":3.735376465704836,"F015":-7.883044050728545,"ISSN":-0.9281599168892943,"ISRN":-0.11508556475301539}},"2":{"bias":-5.752223243887669,"weights":{"title":-4.001504653547306,"author":-0.27277649259799647,"reprint":-6.374610711978459,"years":9.798828842531554,"charsimilarity":-5.12684367715272,"size":9.423501019545764,"ISBN":3.338629284934364,"sarjat":11.384831969287,"F015":4.223203304569657,"ISSN":2.500003549896712,"ISRN":0.07567459143151384}},"3":{"bias":-3.8833900589558237,"weights":{"title":-4.723509629158657,"author":-3.4435996906906214,"reprint":4.60433754936023,"years":4.67466804665271,"charsimilarity":8.999806081861959,"size":-4.135418104834294,"ISBN":-1.0660308261294837,"sarjat":0.8314469854183228,"F015":4.6553885960829895,"ISSN":1.5495369023183543,"ISRN":-0.12678196225461724}},"4":{"bias":-7.320379169883441,"weights":{"title":0.5598738388942148,"author":-0.21867553380913468,"reprint":-6.0482759195683755,"years":6.4190815363595135,"charsimilarity":16.7905139623778,"size":-6.013291909230992,"ISBN":6.027057504834835,"sarjat":-0.5078563431448891,"F015":6.070438763374242,"ISSN":2.2587795753139503,"ISRN":0.06101062428384271}},"5":{"bias":10.368919111299611,"weights":{"title":2.9889368866732053,"author":7.877381196222012,"reprint":-4.1629638255390615,"years":-10.556174518260118,"charsimilarity":-13.580970372451374,"size":-5.640874189034938,"ISBN":-15.639523023774387,"sarjat":-5.46027049757379,"F015":-5.48837159005846,"ISSN":-3.5805220685295787,"ISRN":0.11157621385965726}},"6":{"bias":9.243585108510498,"weights":{"title":-4.965509631704142,"author":-2.1631043603490663,"reprint":-2.5762051390666847,"years":-6.987231328156443,"charsimilarity":0.003572467752335827,"size":-2.9126740634365653,"ISBN":-1.6930730226536073,"sarjat":-1.7165177806023924,"F015":-0.4272085354643183,"ISSN":-1.2837663869031053,"ISRN":-0.22426979799741498}},"7":{"bias":7.337488149012506,"weights":{"title":-5.112516740312465,"author":-6.99559183626011,"reprint":11.433576583108387,"years":-6.385944995769379,"charsimilarity":1.4067656872515442,"size":0.473868868749947,"ISBN":-11.405833022583892,"sarjat":2.778535026647205,"F015":-7.051624565314467,"ISSN":-1.1591254061479084,"ISRN":0.06906587951800458}}},{"0":{"bias":-4.7947212413178715,"weights":{"0":-1.6115456373960995,"1":-1.3601894446496359,"2":8.776043484899482,"3":5.117127220970859,"4":5.906211232496123,"5":-4.979132466761163,"6":-1.8675715347039268,"7":-4.284606136199133}},"1":{"bias":-5.67217366296067,"weights":{"0":-0.20251601208353165,"1":-2.66172935415155,"2":-5.383930992209221,"3":-0.6642931181085442,"4":1.9521623921438436,"5":0.13777968700880683,"6":-2.307821885467735,"7":7.761188180283838}},"2":{"bias":-2.5595442451569346,"weights":{"0":-0.44693713760020587,"1":-1.9068012483679022,"2":0.062416251589102634,"3":0.3459901804709547,"4":0.45164670656749306,"5":-0.8997201972231189,"6":-1.5862798249843566,"7":0.05787464953458338}},"3":{"bias":-4.004777136613046,"weights":{"0":1.3174580648506804,"1":5.731418647938772,"2":-3.406790509138876,"3":-4.860023785768316,"4":-4.810984712374443,"5":10.832444511555979,"6":5.3228505206011905,"7":9.119281079440821}},"4":{"bias":-2.147806988954131,"weights":{"0":0.224089749442439,"1":1.9570648692542365,"2":-0.44628951885724666,"3":-0.4969335494240501,"4":-0.23693566866010765,"5":-0.3047865603268025,"6":2.1615334303937237,"7":-0.8529962196490516}},"5":{"bias":-1.7490606060251421,"weights":{"0":0.6568125748802163,"1":5.619957949617914,"2":1.6354685926767718,"3":-0.730212068048095,"4":-2.773334265149367,"5":-4.761878689722195,"6":5.192370915944842,"7":1.1287417712351655}},"6":{"bias":-4.180628067763393,"weights":{"0":-0.8446221480226617,"1":-2.911008857008859,"2":4.558244012419554,"3":4.441026936328417,"4":6.154157283361782,"5":-4.651537973611122,"6":-1.1086043788504625,"7":-2.310607791342308}},"7":{"bias":-3.1256335990563886,"weights":{"0":-0.7304389904328469,"1":-2.4562893056157225,"2":1.4871583664101977,"3":0.7435834190328221,"4":2.0699895405260125,"5":-1.8168446443629944,"6":-1.6385207046745198,"7":-1.458686168346883}}},{"0":{"bias":0.6997731287334027,"weights":{"0":5.475268736285765,"1":9.684170147922666,"2":0.24954438247774977,"3":-3.99374018361283,"4":-1.7420015026606495,"5":-6.365113941117213,"6":4.756279753630842,"7":1.1996485054731059}}}],"outputLookup":false,"inputLookup":true}