{"layers":[{"title":{},"author":{},"ISBN":{},"reprint":{},"years":{},"charsimilarity":{},"size":{},"ISSN":{},"ISRN":{},"sarjat":{},"F015":{}},{"0":{"bias":-11.23512865784838,"weights":{"title":0.3177293924227646,"author":17.661925439824895,"ISBN":1.8626621310370584,"reprint":-7.859271866727307,"years":-10.577432810191526,"charsimilarity":-4.88621440646641,"size":-1.4780248852675952,"ISSN":7.741853075131134,"ISRN":-7.458530061967384,"sarjat":-5.999289393833912,"F015":13.477071561505806}},"1":{"bias":-24.984435979014517,"weights":{"title":4.709209713930945,"author":-6.482084107058582,"ISBN":2.231616705367747,"reprint":-2.9245554970159113,"years":14.944807580784593,"charsimilarity":22.34880219783974,"size":-5.106033121991391,"ISSN":-3.9415400339709414,"ISRN":-0.287549655507036,"sarjat":1.4118009056403495,"F015":17.010091092323172}},"2":{"bias":-38.71728507220945,"weights":{"title":-2.1816372932724,"author":2.6953219626359455,"ISBN":35.34575894032829,"reprint":1.6972428631476322,"years":3.553916694089355,"charsimilarity":-0.7490687123962115,"size":4.719928981856001,"ISSN":2.6575916024486186,"ISRN":-5.831739055402222,"sarjat":0.9270835464106264,"F015":-1.4004294923216598}},"3":{"bias":-4.008105881104634,"weights":{"title":8.102049644254613,"author":-9.570193183764394,"ISBN":26.71033297426074,"reprint":-12.81787463949697,"years":2.2485257980502866,"charsimilarity":-1.13924704405487,"size":-23.64613802843826,"ISSN":5.359475640523859,"ISRN":-2.5128221899614744,"sarjat":-8.55109001095608,"F015":-0.7370377911151584}},"4":{"bias":-21.222195404551048,"weights":{"title":11.160211025889021,"author":-0.4577906579556176,"ISBN":9.32097544336105,"reprint":-0.06948704060079337,"years":12.504905882976372,"charsimilarity":2.8035975740821844,"size":-1.4443096598176732,"ISSN":3.40999427799159,"ISRN":-2.762962578272198,"sarjat":5.532783456160901,"F015":10.031745861527508}},"5":{"bias":-5.5436110274686525,"weights":{"title":10.910128429774725,"author":-11.491373734676811,"ISBN":-15.269160908906615,"reprint":-8.137110228384516,"years":11.930672019403161,"charsimilarity":2.8555165665762297,"size":-12.896514399066591,"ISSN":-3.5258030791425585,"ISRN":1.0268580378712109,"sarjat":-5.31269353797247,"F015":8.581733206871439}},"6":{"bias":-28.450365916231494,"weights":{"title":12.073021234980178,"author":1.724472879390648,"ISBN":2.9176827435032755,"reprint":2.418677016818264,"years":-1.6207757043370514,"charsimilarity":19.37315438957996,"size":-2.017367948349907,"ISSN":8.999897502115177,"ISRN":4.469817538442216,"sarjat":3.156896200129989,"F015":10.03121291238891}},"7":{"bias":-9.036754971946591,"weights":{"title":-1.0260852193982293,"author":1.6797883823883921,"ISBN":9.022367791978619,"reprint":-11.880328112635638,"years":9.579035367145272,"charsimilarity":8.19720465969416,"size":-26.163754453119733,"ISSN":6.088769105375655,"ISRN":-2.894006369578502,"sarjat":-8.935264380223147,"F015":10.9540013599914}}},{"0":{"bias":-15.57699008917248,"weights":{"0":-2.743454662134698,"1":-1.4927792621909812,"2":4.304102512912087,"3":16.876129482758472,"4":-3.9766726015756575,"5":-11.502488185861377,"6":2.243578517192258,"7":9.539395041235881}},"1":{"bias":6.288623855785556,"weights":{"0":-2.5255042341726086,"1":-14.658043774925028,"2":1.0957805116105155,"3":-2.672231278064996,"4":-7.927036234366975,"5":-9.32948368988897,"6":2.663431440849167,"7":-8.085533459571565}},"2":{"bias":-4.433470839340626,"weights":{"0":-6.43477334867858,"1":-6.092081192604958,"2":-13.178977651414465,"3":0.4466028738759301,"4":3.2703962748812847,"5":0.020226909882715492,"6":-4.679528402779265,"7":2.374522186304457}},"3":{"bias":0.37160082346867196,"weights":{"0":-3.457472642325629,"1":0.15088164788874783,"2":-0.5491962663316686,"3":5.039471840945604,"4":-11.335753839721086,"5":-2.7389931585789418,"6":-3.1763226082147527,"7":-5.259882027059173}},"4":{"bias":-3.758277170142166,"weights":{"0":-6.708089619352315,"1":5.287132932365246,"2":-17.993176960473118,"3":1.9646521596432873,"4":2.9636981181474114,"5":-7.139587765253244,"6":-5.155097696447351,"7":-0.06539141167000818}},"5":{"bias":-5.607135198079055,"weights":{"0":-1.6728863263420246,"1":-2.594278204690839,"2":4.954442285724964,"3":8.620316011707077,"4":-13.69834933714611,"5":-9.074001283412287,"6":-1.0849209871915664,"7":1.1973028999635038}},"6":{"bias":-2.4509832692973754,"weights":{"0":-2.4587872673848565,"1":-2.2463444530765595,"2":-2.809366104826555,"3":1.9038911660000992,"4":-1.871652354792792,"5":-3.749234219140773,"6":0.5512236359200493,"7":-2.9366094828879743}},"7":{"bias":12.069719587068544,"weights":{"0":-7.307787162533892,"1":-15.70131480398222,"2":-22.24261483486318,"3":-19.22605464176033,"4":8.491590798036292,"5":8.92549420666238,"6":-6.878111844447967,"7":-13.411118208743371}}},{"0":{"bias":3.434114614273169,"weights":{"0":-3.4257626153988303,"1":-2.0624150087561213,"2":-2.144385553558861,"3":-2.4240012477535124,"4":-4.014311862735526,"5":-7.56618493692883,"6":-1.0266396365475912,"7":-3.230575086781031}}}],"outputLookup":false,"inputLookup":true}